digraph Tree {
node [shape=box, style="filled, rounded", color="black", fontname="helvetica"] ;
edge [fontname="helvetica"] ;
0 [label="anxietyEncoded <= 1.5\nentropy = 1.096\nsamples = 718\nvalue = [17, 581, 535]\nclass = No effect", fillcolor="#f0fdf5"] ;
1 [label="gospelEncoded <= 0.5\nentropy = 0.986\nsamples = 171\nvalue = [3.0, 213.5, 107.0]\nclass = No effect", fillcolor="#9ef2c1"] ;
0 -> 1 [labeldistance=2.5, labelangle=45, headlabel="True"] ;
2 [label="rockEncoded <= 2.5\nentropy = 0.922\nsamples = 119\nvalue = [3.0, 178.5, 65.0]\nclass = No effect", fillcolor="#83efb0"] ;
1 -> 2 ;
3 [label="folkEncoded <= 0.5\nentropy = 0.911\nsamples = 70\nvalue = [0, 91, 44]\nclass = No effect", fillcolor="#99f2be"] ;
2 -> 3 ;
4 [label="entropy = 0.992\nsamples = 42\nvalue = [0.0, 38.5, 31.0]\nclass = No effect", fillcolor="#d8fae6"] ;
3 -> 4 ;
5 [label="entropy = 0.719\nsamples = 28\nvalue = [0.0, 52.5, 13.0]\nclass = No effect", fillcolor="#6aeba0"] ;
3 -> 5 ;
6 [label="countryEncoded <= 0.5\nentropy = 0.868\nsamples = 49\nvalue = [3.0, 87.5, 21.0]\nclass = No effect", fillcolor="#6eeca2"] ;
2 -> 6 ;
7 [label="entropy = 0.635\nsamples = 23\nvalue = [1.0, 52.5, 7.0]\nclass = No effect", fillcolor="#57e994"] ;
6 -> 7 ;
8 [label="entropy = 1.068\nsamples = 26\nvalue = [2.0, 35.0, 14.0]\nclass = No effect", fillcolor="#8ff0b7"] ;
6 -> 8 ;
9 [label="r&bEncoded <= 1.5\nentropy = 0.994\nsamples = 52\nvalue = [0, 35, 42]\nclass = Improve", fillcolor="#eadefb"] ;
1 -> 9 ;
10 [label="entropy = 0.831\nsamples = 18\nvalue = [0, 28, 10]\nclass = No effect", fillcolor="#80eeae"] ;
9 -> 10 ;
11 [label="popEncoded <= 2.5\nentropy = 0.679\nsamples = 34\nvalue = [0, 7, 32]\nclass = Improve", fillcolor="#9d64eb"] ;
9 -> 11 ;
12 [label="entropy = 0.902\nsamples = 17\nvalue = [0.0, 7.0, 15.0]\nclass = Improve", fillcolor="#bc95f1"] ;
11 -> 12 ;
13 [label="entropy = 0.0\nsamples = 17\nvalue = [0, 0, 17]\nclass = Improve", fillcolor="#8139e5"] ;
11 -> 13 ;
14 [label="r&bEncoded <= 1.5\nentropy = 1.105\nsamples = 547\nvalue = [14.0, 367.5, 428.0]\nclass = Improve", fillcolor="#eee4fb"] ;
0 -> 14 [labeldistance=2.5, labelangle=-45, headlabel="False"] ;
15 [label="latinEncoded <= 1.5\nentropy = 1.129\nsamples = 329\nvalue = [11, 252, 246]\nclass = No effect", fillcolor="#fafefc"] ;
14 -> 15 ;
16 [label="ageEncoded <= 1.5\nentropy = 1.123\nsamples = 304\nvalue = [10.0, 248.5, 223.0]\nclass = No effect", fillcolor="#ebfcf3"] ;
15 -> 16 ;
17 [label="entropy = 1.12\nsamples = 107\nvalue = [4, 56, 87]\nclass = Improve", fillcolor="#d4bcf6"] ;
16 -> 17 ;
18 [label="entropy = 1.091\nsamples = 197\nvalue = [6.0, 192.5, 136.0]\nclass = No effect", fillcolor="#c7f8db"] ;
16 -> 18 ;
19 [label="entropy = 0.768\nsamples = 25\nvalue = [1.0, 3.5, 23.0]\nclass = Improve", fillcolor="#995eea"] ;
15 -> 19 ;
20 [label="latinEncoded <= 2.5\nentropy = 1.035\nsamples = 218\nvalue = [3.0, 115.5, 182.0]\nclass = Improve", fillcolor="#d2b8f6"] ;
14 -> 20 ;
21 [label="metalEncoded <= 2.5\nentropy = 1.004\nsamples = 198\nvalue = [1, 112, 165]\nclass = Improve", fillcolor="#d7c0f7"] ;
20 -> 21 ;
22 [label="entropy = 0.982\nsamples = 168\nvalue = [0.0, 101.5, 139.0]\nclass = Improve", fillcolor="#ddcaf8"] ;
21 -> 22 ;
23 [label="entropy = 1.02\nsamples = 30\nvalue = [1.0, 10.5, 26.0]\nclass = Improve", fillcolor="#b78df0"] ;
21 -> 23 ;
24 [label="entropy = 1.034\nsamples = 20\nvalue = [2.0, 3.5, 17.0]\nclass = Improve", fillcolor="#a572ed"] ;
20 -> 24 ;
}