digraph Tree {
node [shape=box, style="filled, rounded", color="black", fontname="helvetica"] ;
edge [fontname="helvetica"] ;
0 [label="r&bEncoded <= 1.5\nentropy = 1.096\nsamples = 718\nvalue = [17, 581, 535]\nclass = No effect", fillcolor="#f0fdf5"] ;
1 [label="ageEncoded <= 1.5\nentropy = 1.104\nsamples = 428\nvalue = [14.0, 402.5, 299.0]\nclass = No effect", fillcolor="#cef9e0"] ;
0 -> 1 [labeldistance=2.5, labelangle=45, headlabel="True"] ;
2 [label="instrumentalistEncoded <= 0.5\nentropy = 1.134\nsamples = 139\nvalue = [5.0, 87.5, 109.0]\nclass = Improve", fillcolor="#e7dafa"] ;
1 -> 2 ;
3 [label="bpmEncoded <= 3.5\nentropy = 1.164\nsamples = 75\nvalue = [4.0, 66.5, 52.0]\nclass = No effect", fillcolor="#d6fae5"] ;
2 -> 3 ;
4 [label="entropy = 1.074\nsamples = 33\nvalue = [3.0, 45.5, 17.0]\nclass = No effect", fillcolor="#8bf0b5"] ;
3 -> 4 ;
5 [label="entropy = 1.065\nsamples = 42\nvalue = [1, 21, 35]\nclass = Improve", fillcolor="#ceb2f5"] ;
3 -> 5 ;
6 [label="jazzEncoded <= 0.5\nentropy = 0.928\nsamples = 64\nvalue = [1.0, 21.0, 57.0]\nclass = Improve", fillcolor="#b184ef"] ;
2 -> 6 ;
7 [label="entropy = 1.145\nsamples = 26\nvalue = [1.0, 17.5, 20.0]\nclass = Improve", fillcolor="#f0e7fc"] ;
6 -> 7 ;
8 [label="entropy = 0.424\nsamples = 38\nvalue = [0.0, 3.5, 37.0]\nclass = Improve", fillcolor="#8d4ce7"] ;
6 -> 8 ;
9 [label="bpmEncoded <= 4.5\nentropy = 1.066\nsamples = 289\nvalue = [9, 315, 190]\nclass = No effect", fillcolor="#b3f5ce"] ;
1 -> 9 ;
10 [label="bpmEncoded <= 2.5\nentropy = 1.04\nsamples = 250\nvalue = [8.0, 297.5, 157.0]\nclass = No effect", fillcolor="#a4f3c5"] ;
9 -> 10 ;
11 [label="entropy = 1.158\nsamples = 70\nvalue = [3, 49, 53]\nclass = Improve", fillcolor="#f6f1fd"] ;
10 -> 11 ;
12 [label="entropy = 0.969\nsamples = 180\nvalue = [5.0, 248.5, 104.0]\nclass = No effect", fillcolor="#8ef0b7"] ;
10 -> 12 ;
13 [label="hiphopEncoded <= 0.5\nentropy = 1.051\nsamples = 39\nvalue = [1.0, 17.5, 33.0]\nclass = Improve", fillcolor="#c6a5f3"] ;
9 -> 13 ;
14 [label="entropy = 0.996\nsamples = 16\nvalue = [0, 14, 12]\nclass = No effect", fillcolor="#e3fbed"] ;
13 -> 14 ;
15 [label="entropy = 0.807\nsamples = 23\nvalue = [1.0, 3.5, 21.0]\nclass = Improve", fillcolor="#9b62ea"] ;
13 -> 15 ;
16 [label="gospelEncoded <= 0.5\nentropy = 1.04\nsamples = 290\nvalue = [3.0, 178.5, 236.0]\nclass = Improve", fillcolor="#e1cff9"] ;
0 -> 16 [labeldistance=2.5, labelangle=-45, headlabel="False"] ;
17 [label="hiphopEncoded <= 2.5\nentropy = 1.075\nsamples = 178\nvalue = [3, 140, 135]\nclass = No effect", fillcolor="#f8fefb"] ;
16 -> 17 ;
18 [label="rapEncoded <= 2.5\nentropy = 1.036\nsamples = 116\nvalue = [1.0, 73.5, 94.0]\nclass = Improve", fillcolor="#e4d4f9"] ;
17 -> 18 ;
19 [label="entropy = 1.05\nsamples = 99\nvalue = [1.0, 73.5, 77.0]\nclass = Improve", fillcolor="#f9f6fe"] ;
18 -> 19 ;
20 [label="entropy = 0.0\nsamples = 17\nvalue = [0, 0, 17]\nclass = Improve", fillcolor="#8139e5"] ;
18 -> 20 ;
21 [label="latinEncoded <= 1.5\nentropy = 1.073\nsamples = 62\nvalue = [2.0, 66.5, 41.0]\nclass = No effect", fillcolor="#b5f5d0"] ;
17 -> 21 ;
22 [label="entropy = 0.896\nsamples = 44\nvalue = [0.0, 59.5, 27.0]\nclass = No effect", fillcolor="#93f1ba"] ;
21 -> 22 ;
23 [label="entropy = 1.265\nsamples = 18\nvalue = [2, 7, 14]\nclass = Improve", fillcolor="#c8a8f4"] ;
21 -> 23 ;
24 [label="edmEncoded <= 2.5\nentropy = 0.85\nsamples = 112\nvalue = [0.0, 38.5, 101.0]\nclass = Improve", fillcolor="#b184ef"] ;
16 -> 24 ;
25 [label="bpmEncoded <= 2.5\nentropy = 0.91\nsamples = 91\nvalue = [0.0, 38.5, 80.0]\nclass = Improve", fillcolor="#be98f2"] ;
24 -> 25 ;
26 [label="entropy = 0.456\nsamples = 34\nvalue = [0.0, 3.5, 33.0]\nclass = Improve", fillcolor="#8e4ee8"] ;
25 -> 26 ;
27 [label="entropy = 0.984\nsamples = 57\nvalue = [0.0, 35.0, 47.0]\nclass = Improve", fillcolor="#dfccf8"] ;
25 -> 27 ;
28 [label="entropy = 0.0\nsamples = 21\nvalue = [0, 0, 21]\nclass = Improve", fillcolor="#8139e5"] ;
24 -> 28 ;
}